digraph Tree {
node [shape=box, style="filled", color="black"] ;
0 [label="483 <= 2210.0\ngini = 0.656\nsamples = 28\nvalue = [18, 12, 18]", fillcolor="#e5813900"] ;
1 [label="144 <= 380.0\ngini = 0.48\nsamples = 19\nvalue = [18, 12, 0]", fillcolor="#e5813955"] ;
0 -> 1 [labeldistance=2.5, labelangle=45, headlabel="True"] ;
2 [label="521 <= 10405.0\ngini = 0.245\nsamples = 10\nvalue = [2, 12, 0]", fillcolor="#39e581d4"] ;
1 -> 2 ;
3 [label="gini = 0.0\nsamples = 1\nvalue = [2, 0, 0]", fillcolor="#e58139ff"] ;
2 -> 3 ;
4 [label="gini = 0.0\nsamples = 9\nvalue = [0, 12, 0]", fillcolor="#39e581ff"] ;
2 -> 4 ;
5 [label="gini = 0.0\nsamples = 9\nvalue = [16, 0, 0]", fillcolor="#e58139ff"] ;
1 -> 5 ;
6 [label="gini = 0.0\nsamples = 9\nvalue = [0, 0, 18]", fillcolor="#8139e5ff"] ;
0 -> 6 [labeldistance=2.5, labelangle=-45, headlabel="False"] ;
}