digraph Tree {
node [shape=box, style="filled", color="black"] ;
0 [label="512 <= 470.0\ngini = 0.742\nsamples = 27\nvalue = [14, 9, 11, 14]", fillcolor="#e5813900"] ;
1 [label="gini = 0.0\nsamples = 8\nvalue = [0, 0, 0, 14]", fillcolor="#d739e5ff"] ;
0 -> 1 [labeldistance=2.5, labelangle=45, headlabel="True"] ;
2 [label="897 <= 605.0\ngini = 0.656\nsamples = 19\nvalue = [14, 9, 11, 0]", fillcolor="#e5813921"] ;
0 -> 2 [labeldistance=2.5, labelangle=-45, headlabel="False"] ;
3 [label="gini = 0.0\nsamples = 6\nvalue = [0, 9, 0, 0]", fillcolor="#47e539ff"] ;
2 -> 3 ;
4 [label="231 <= 360.0\ngini = 0.493\nsamples = 13\nvalue = [14, 0, 11, 0]", fillcolor="#e5813937"] ;
2 -> 4 ;
5 [label="gini = 0.0\nsamples = 7\nvalue = [14, 0, 0, 0]", fillcolor="#e58139ff"] ;
4 -> 5 ;
6 [label="gini = 0.0\nsamples = 6\nvalue = [0, 0, 11, 0]", fillcolor="#399de5ff"] ;
4 -> 6 ;
}