digraph Tree {
node [shape=box, style="filled", color="black"] ;
0 [label="1112 <= 100.0\ngini = 0.739\nsamples = 28\nvalue = [9, 16, 11, 12]", fillcolor="#47e5391c"] ;
1 [label="578 <= 770.0\ngini = 0.647\nsamples = 21\nvalue = [9, 16, 11, 0]", fillcolor="#47e53933"] ;
0 -> 1 [labeldistance=2.5, labelangle=45, headlabel="True"] ;
2 [label="gini = 0.0\nsamples = 8\nvalue = [0, 14, 0, 0]", fillcolor="#47e539ff"] ;
1 -> 2 ;
3 [label="50 <= 3310.0\ngini = 0.574\nsamples = 13\nvalue = [9, 2, 11, 0]", fillcolor="#399de527"] ;
1 -> 3 ;
4 [label="gini = 0.0\nsamples = 6\nvalue = [9, 0, 0, 0]", fillcolor="#e58139ff"] ;
3 -> 4 ;
5 [label="2500 <= 25.0\ngini = 0.26\nsamples = 7\nvalue = [0, 2, 11, 0]", fillcolor="#399de5d1"] ;
3 -> 5 ;
6 [label="gini = 0.0\nsamples = 6\nvalue = [0, 0, 11, 0]", fillcolor="#399de5ff"] ;
5 -> 6 ;
7 [label="gini = 0.0\nsamples = 1\nvalue = [0, 2, 0, 0]", fillcolor="#47e539ff"] ;
5 -> 7 ;
8 [label="gini = 0.0\nsamples = 7\nvalue = [0, 0, 0, 12]", fillcolor="#d739e5ff"] ;
0 -> 8 [labeldistance=2.5, labelangle=-45, headlabel="False"] ;
}