digraph Tree {
node [shape=box, style="filled", color="black"] ;
0 [label="957 <= 675.0\ngini = 0.665\nsamples = 22\nvalue = [11, 13, 12]", fillcolor="#39e5810b"] ;
1 [label="878 <= 16285.0\ngini = 0.49\nsamples = 12\nvalue = [9, 0, 12]", fillcolor="#8139e540"] ;
0 -> 1 [labeldistance=2.5, labelangle=45, headlabel="True"] ;
2 [label="gini = 0.0\nsamples = 4\nvalue = [0, 0, 9]", fillcolor="#8139e5ff"] ;
1 -> 2 ;
3 [label="405 <= 80.0\ngini = 0.375\nsamples = 8\nvalue = [9, 0, 3]", fillcolor="#e58139aa"] ;
1 -> 3 ;
4 [label="gini = 0.0\nsamples = 6\nvalue = [9, 0, 0]", fillcolor="#e58139ff"] ;
3 -> 4 ;
5 [label="gini = 0.0\nsamples = 2\nvalue = [0, 0, 3]", fillcolor="#8139e5ff"] ;
3 -> 5 ;
6 [label="2329 <= 25.0\ngini = 0.231\nsamples = 10\nvalue = [2, 13, 0]", fillcolor="#39e581d8"] ;
0 -> 6 [labeldistance=2.5, labelangle=-45, headlabel="False"] ;
7 [label="gini = 0.0\nsamples = 9\nvalue = [0, 13, 0]", fillcolor="#39e581ff"] ;
6 -> 7 ;
8 [label="gini = 0.0\nsamples = 1\nvalue = [2, 0, 0]", fillcolor="#e58139ff"] ;
6 -> 8 ;
}