digraph Tree {
node [shape=box, style="filled", color="black"] ;
0 [label="584 <= 5030.0\ngini = 0.66\nsamples = 25\nvalue = [10, 12, 14]", fillcolor="#8139e515"] ;
1 [label="878 <= 23875.0\ngini = 0.525\nsamples = 17\nvalue = [10, 1, 14]", fillcolor="#8139e544"] ;
0 -> 1 [labeldistance=2.5, labelangle=45, headlabel="True"] ;
2 [label="977 <= 60.0\ngini = 0.32\nsamples = 11\nvalue = [2, 1, 13]", fillcolor="#8139e5c8"] ;
1 -> 2 ;
3 [label="2514 <= 155.0\ngini = 0.444\nsamples = 3\nvalue = [2, 1, 0]", fillcolor="#e581397f"] ;
2 -> 3 ;
4 [label="gini = 0.0\nsamples = 2\nvalue = [2, 0, 0]", fillcolor="#e58139ff"] ;
3 -> 4 ;
5 [label="gini = 0.0\nsamples = 1\nvalue = [0, 1, 0]", fillcolor="#39e581ff"] ;
3 -> 5 ;
6 [label="gini = 0.0\nsamples = 8\nvalue = [0, 0, 13]", fillcolor="#8139e5ff"] ;
2 -> 6 ;
7 [label="1710 <= 250.0\ngini = 0.198\nsamples = 6\nvalue = [8, 0, 1]", fillcolor="#e58139df"] ;
1 -> 7 ;
8 [label="gini = 0.0\nsamples = 5\nvalue = [8, 0, 0]", fillcolor="#e58139ff"] ;
7 -> 8 ;
9 [label="gini = 0.0\nsamples = 1\nvalue = [0, 0, 1]", fillcolor="#8139e5ff"] ;
7 -> 9 ;
10 [label="gini = 0.0\nsamples = 8\nvalue = [0, 11, 0]", fillcolor="#39e581ff"] ;
0 -> 10 [labeldistance=2.5, labelangle=-45, headlabel="False"] ;
}