digraph Tree {
node [shape=box, style="filled", color="black"] ;
0 [label="902 <= 490.0\ngini = 0.665\nsamples = 25\nvalue = [12, 13, 11]", fillcolor="#39e5810b"] ;
1 [label="247 <= 5.0\ngini = 0.142\nsamples = 9\nvalue = [1, 12, 0]", fillcolor="#39e581ea"] ;
0 -> 1 [labeldistance=2.5, labelangle=45, headlabel="True"] ;
2 [label="gini = 0.0\nsamples = 1\nvalue = [1, 0, 0]", fillcolor="#e58139ff"] ;
1 -> 2 ;
3 [label="gini = 0.0\nsamples = 8\nvalue = [0, 12, 0]", fillcolor="#39e581ff"] ;
1 -> 3 ;
4 [label="1180 <= 25.0\ngini = 0.541\nsamples = 16\nvalue = [11, 1, 11]", fillcolor="#e5813900"] ;
0 -> 4 [labeldistance=2.5, labelangle=-45, headlabel="False"] ;
5 [label="622 <= 285.0\ngini = 0.379\nsamples = 10\nvalue = [10, 1, 2]", fillcolor="#e58139b9"] ;
4 -> 5 ;
6 [label="616 <= 505.0\ngini = 0.444\nsamples = 3\nvalue = [0, 1, 2]", fillcolor="#8139e57f"] ;
5 -> 6 ;
7 [label="gini = 0.0\nsamples = 1\nvalue = [0, 1, 0]", fillcolor="#39e581ff"] ;
6 -> 7 ;
8 [label="gini = 0.0\nsamples = 2\nvalue = [0, 0, 2]", fillcolor="#8139e5ff"] ;
6 -> 8 ;
9 [label="gini = 0.0\nsamples = 7\nvalue = [10, 0, 0]", fillcolor="#e58139ff"] ;
5 -> 9 ;
10 [label="852 <= 192716.828\ngini = 0.18\nsamples = 6\nvalue = [1, 0, 9]", fillcolor="#8139e5e3"] ;
4 -> 10 ;
11 [label="gini = 0.0\nsamples = 5\nvalue = [0, 0, 9]", fillcolor="#8139e5ff"] ;
10 -> 11 ;
12 [label="gini = 0.0\nsamples = 1\nvalue = [1, 0, 0]", fillcolor="#e58139ff"] ;
10 -> 12 ;
}