digraph Tree {
node [shape=box, style="filled", color="black"] ;
0 [label="183 <= 1115.0\ngini = 0.656\nsamples = 22\nvalue = [10, 11, 15]", fillcolor="#8139e529"] ;
1 [label="238 <= 385.0\ngini = 0.48\nsamples = 15\nvalue = [10, 0, 15]", fillcolor="#8139e555"] ;
0 -> 1 [labeldistance=2.5, labelangle=45, headlabel="True"] ;
2 [label="2914 <= 10.0\ngini = 0.278\nsamples = 9\nvalue = [10, 0, 2]", fillcolor="#e58139cc"] ;
1 -> 2 ;
3 [label="gini = 0.0\nsamples = 7\nvalue = [10, 0, 0]", fillcolor="#e58139ff"] ;
2 -> 3 ;
4 [label="gini = 0.0\nsamples = 2\nvalue = [0, 0, 2]", fillcolor="#8139e5ff"] ;
2 -> 4 ;
5 [label="gini = 0.0\nsamples = 6\nvalue = [0, 0, 13]", fillcolor="#8139e5ff"] ;
1 -> 5 ;
6 [label="gini = 0.0\nsamples = 7\nvalue = [0, 11, 0]", fillcolor="#39e581ff"] ;
0 -> 6 [labeldistance=2.5, labelangle=-45, headlabel="False"] ;
}